digraph Tree {
node [shape=box, style="filled, rounded", color="black", fontname=helvetica] ;
edge [fontname=helvetica] ;
0 [label=<total_transactions &le; 0.001<br/>gini = 0.5<br/>samples = 29838<br/>value = [14919, 14919]>, fillcolor="#ffffff"] ;
1 [label=<total_transactions &le; 0.0<br/>gini = 0.176<br/>samples = 16092<br/>value = [14526, 1566]>, fillcolor="#e88f4e"] ;
0 -> 1 [labeldistance=2.5, labelangle=45, headlabel="True"] ;
2 [label=<balance_ether &le; 0.0<br/>gini = 0.039<br/>samples = 13114<br/>value = [12855, 259]>, fillcolor="#e6843d"] ;
1 -> 2 ;
3 [label=<total_transactions &le; 0.0<br/>gini = 0.026<br/>samples = 13006<br/>value = [12832, 174]>, fillcolor="#e5833c"] ;
2 -> 3 ;
4 [label=<balance_ether &le; 0.0<br/>gini = 0.008<br/>samples = 12059<br/>value = [12012, 47]>, fillcolor="#e5813a"] ;
3 -> 4 ;
5 [label=<gini = 0.007<br/>samples = 12044<br/>value = [12001, 43]>, fillcolor="#e5813a"] ;
4 -> 5 ;
6 [label=<gini = 0.391<br/>samples = 15<br/>value = [11, 4]>, fillcolor="#eeaf81"] ;
4 -> 6 ;
7 [label=<sent &le; 0.0<br/>gini = 0.232<br/>samples = 947<br/>value = [820, 127]>, fillcolor="#e99558"] ;
3 -> 7 ;
8 [label=<gini = 0.15<br/>samples = 782<br/>value = [718, 64]>, fillcolor="#e78c4b"] ;
7 -> 8 ;
9 [label=<gini = 0.472<br/>samples = 165<br/>value = [102, 63]>, fillcolor="#f5cfb3"] ;
7 -> 9 ;
10 [label=<n_contracts_sent &le; 0.0<br/>gini = 0.335<br/>samples = 108<br/>value = [23, 85]>, fillcolor="#6fb8ec"] ;
2 -> 10 ;
11 [label=<gini = 0.0<br/>samples = 9<br/>value = [9, 0]>, fillcolor="#e58139"] ;
10 -> 11 ;
12 [label=<balance_ether &le; 0.001<br/>gini = 0.243<br/>samples = 99<br/>value = [14, 85]>, fillcolor="#5aade9"] ;
10 -> 12 ;
13 [label=<gini = 0.188<br/>samples = 95<br/>value = [10, 85]>, fillcolor="#50a9e8"] ;
12 -> 13 ;
14 [label=<gini = 0.0<br/>samples = 4<br/>value = [4, 0]>, fillcolor="#e58139"] ;
12 -> 14 ;
15 [label=<balance_ether &le; 0.0<br/>gini = 0.493<br/>samples = 2978<br/>value = [1671, 1307]>, fillcolor="#f9e4d4"] ;
1 -> 15 ;
16 [label=<received &le; 0.001<br/>gini = 0.323<br/>samples = 1856<br/>value = [1480, 376]>, fillcolor="#eca16b"] ;
15 -> 16 ;
17 [label=<n_contracts_sent &le; 0.001<br/>gini = 0.495<br/>samples = 731<br/>value = [401, 330]>, fillcolor="#fae9dc"] ;
16 -> 17 ;
18 [label=<gini = 0.368<br/>samples = 497<br/>value = [376, 121]>, fillcolor="#edaa79"] ;
17 -> 18 ;
19 [label=<gini = 0.191<br/>samples = 234<br/>value = [25, 209]>, fillcolor="#51a9e8"] ;
17 -> 19 ;
20 [label=<sent &le; 0.002<br/>gini = 0.078<br/>samples = 1125<br/>value = [1079, 46]>, fillcolor="#e68641"] ;
16 -> 20 ;
21 [label=<gini = 0.039<br/>samples = 1062<br/>value = [1041, 21]>, fillcolor="#e6843d"] ;
20 -> 21 ;
22 [label=<gini = 0.479<br/>samples = 63<br/>value = [38, 25]>, fillcolor="#f6d4bb"] ;
20 -> 22 ;
23 [label=<received &le; 0.001<br/>gini = 0.283<br/>samples = 1122<br/>value = [191, 931]>, fillcolor="#62b1ea"] ;
15 -> 23 ;
24 [label=<n_contracts_sent &le; 0.0<br/>gini = 0.165<br/>samples = 871<br/>value = [79, 792]>, fillcolor="#4da7e8"] ;
23 -> 24 ;
25 [label=<gini = 0.444<br/>samples = 42<br/>value = [28, 14]>, fillcolor="#f2c09c"] ;
24 -> 25 ;
26 [label=<gini = 0.115<br/>samples = 829<br/>value = [51, 778]>, fillcolor="#46a3e7"] ;
24 -> 26 ;
27 [label=<total_transactions &le; 0.0<br/>gini = 0.494<br/>samples = 251<br/>value = [112, 139]>, fillcolor="#d9ecfa"] ;
23 -> 27 ;
28 [label=<gini = 0.433<br/>samples = 101<br/>value = [69, 32]>, fillcolor="#f1bb95"] ;
27 -> 28 ;
29 [label=<gini = 0.409<br/>samples = 150<br/>value = [43, 107]>, fillcolor="#89c4ef"] ;
27 -> 29 ;
30 [label=<total_transactions &le; 0.002<br/>gini = 0.056<br/>samples = 13746<br/>value = [393, 13353]>, fillcolor="#3fa0e6"] ;
0 -> 30 [labeldistance=2.5, labelangle=-45, headlabel="False"] ;
31 [label=<balance_ether &le; 0.0<br/>gini = 0.29<br/>samples = 1986<br/>value = [350, 1636]>, fillcolor="#63b2eb"] ;
30 -> 31 ;
32 [label=<n_contracts_sent &le; 0.005<br/>gini = 0.476<br/>samples = 622<br/>value = [243, 379]>, fillcolor="#b8dcf6"] ;
31 -> 32 ;
33 [label=<balance_ether &le; 0.0<br/>gini = 0.425<br/>samples = 160<br/>value = [111, 49]>, fillcolor="#f0b990"] ;
32 -> 33 ;
34 [label=<gini = 0.184<br/>samples = 107<br/>value = [96, 11]>, fillcolor="#e88f50"] ;
33 -> 34 ;
35 [label=<gini = 0.406<br/>samples = 53<br/>value = [15, 38]>, fillcolor="#87c4ef"] ;
33 -> 35 ;
36 [label=<sent &le; 0.0<br/>gini = 0.408<br/>samples = 462<br/>value = [132, 330]>, fillcolor="#88c4ef"] ;
32 -> 36 ;
37 [label=<gini = 0.499<br/>samples = 179<br/>value = [85, 94]>, fillcolor="#ecf6fd"] ;
36 -> 37 ;
38 [label=<gini = 0.277<br/>samples = 283<br/>value = [47, 236]>, fillcolor="#60b1ea"] ;
36 -> 38 ;
39 [label=<n_contracts_received &le; 0.002<br/>gini = 0.145<br/>samples = 1364<br/>value = [107, 1257]>, fillcolor="#4aa5e7"] ;
31 -> 39 ;
40 [label=<received &le; 0.0<br/>gini = 0.131<br/>samples = 1352<br/>value = [95, 1257]>, fillcolor="#48a4e7"] ;
39 -> 40 ;
41 [label=<gini = 0.0<br/>samples = 7<br/>value = [7, 0]>, fillcolor="#e58139"] ;
40 -> 41 ;
42 [label=<gini = 0.122<br/>samples = 1345<br/>value = [88, 1257]>, fillcolor="#47a4e7"] ;
40 -> 42 ;
43 [label=<gini = 0.0<br/>samples = 12<br/>value = [12, 0]>, fillcolor="#e58139"] ;
39 -> 43 ;
44 [label=<total_transactions &le; 0.003<br/>gini = 0.007<br/>samples = 11760<br/>value = [43, 11717]>, fillcolor="#3a9de5"] ;
30 -> 44 ;
45 [label=<balance_ether &le; 0.0<br/>gini = 0.113<br/>samples = 600<br/>value = [36, 564]>, fillcolor="#46a3e7"] ;
44 -> 45 ;
46 [label=<n_contracts_sent &le; 0.024<br/>gini = 0.375<br/>samples = 8<br/>value = [6, 2]>, fillcolor="#eeab7b"] ;
45 -> 46 ;
47 [label=<gini = 0.0<br/>samples = 6<br/>value = [6, 0]>, fillcolor="#e58139"] ;
46 -> 47 ;
48 [label=<gini = 0.0<br/>samples = 2<br/>value = [0, 2]>, fillcolor="#399de5"] ;
46 -> 48 ;
49 [label=<n_contracts_received &le; 0.011<br/>gini = 0.096<br/>samples = 592<br/>value = [30, 562]>, fillcolor="#44a2e6"] ;
45 -> 49 ;
50 [label=<gini = 0.09<br/>samples = 590<br/>value = [28, 562]>, fillcolor="#43a2e6"] ;
49 -> 50 ;
51 [label=<gini = 0.0<br/>samples = 2<br/>value = [2, 0]>, fillcolor="#e58139"] ;
49 -> 51 ;
52 [label=<total_transactions &le; 0.003<br/>gini = 0.001<br/>samples = 11160<br/>value = [7, 11153]>, fillcolor="#399de5"] ;
44 -> 52 ;
53 [label=<balance_ether &le; 0.0<br/>gini = 0.041<br/>samples = 335<br/>value = [7, 328]>, fillcolor="#3d9fe6"] ;
52 -> 53 ;
54 [label=<gini = 0.0<br/>samples = 1<br/>value = [1, 0]>, fillcolor="#e58139"] ;
53 -> 54 ;
55 [label=<gini = 0.035<br/>samples = 334<br/>value = [6, 328]>, fillcolor="#3d9fe5"] ;
53 -> 55 ;
56 [label=<gini = 0.0<br/>samples = 10825<br/>value = [0, 10825]>, fillcolor="#399de5"] ;
52 -> 56 ;
}