digraph Tree {
node [shape=box, style="filled, rounded", color="black", fontname=helvetica] ;
edge [fontname=helvetica] ;
0 [label=<total_transactions &le; 0.001<br/>gini = 0.5<br/>samples = 30382<br/>value = [15191, 15191]>, fillcolor="#ffffff"] ;
1 [label=<total_transactions &le; 0.0<br/>gini = 0.182<br/>samples = 16127<br/>value = [14496, 1631]>, fillcolor="#e88f4f"] ;
0 -> 1 [labeldistance=2.5, labelangle=45, headlabel="True"] ;
2 [label=<balance_ether &le; 0.001<br/>gini = 0.028<br/>samples = 12768<br/>value = [12587, 181]>, fillcolor="#e5833c"] ;
1 -> 2 ;
3 [label=<total_transactions &le; 0.0<br/>gini = 0.02<br/>samples = 12700<br/>value = [12574, 126]>, fillcolor="#e5823b"] ;
2 -> 3 ;
4 [label=<balance_ether &le; 0.0<br/>gini = 0.01<br/>samples = 12214<br/>value = [12151, 63]>, fillcolor="#e5823a"] ;
3 -> 4 ;
5 [label=<gini = 0.009<br/>samples = 12194<br/>value = [12136, 58]>, fillcolor="#e5823a"] ;
4 -> 5 ;
6 [label=<gini = 0.375<br/>samples = 20<br/>value = [15, 5]>, fillcolor="#eeab7b"] ;
4 -> 6 ;
7 [label=<sent &le; 0.0<br/>gini = 0.226<br/>samples = 486<br/>value = [423, 63]>, fillcolor="#e99456"] ;
3 -> 7 ;
8 [label=<gini = 0.135<br/>samples = 399<br/>value = [370, 29]>, fillcolor="#e78b49"] ;
7 -> 8 ;
9 [label=<gini = 0.476<br/>samples = 87<br/>value = [53, 34]>, fillcolor="#f6d2b8"] ;
7 -> 9 ;
10 [label=<total_transactions &le; 0.0<br/>gini = 0.309<br/>samples = 68<br/>value = [13, 55]>, fillcolor="#68b4eb"] ;
2 -> 10 ;
11 [label=<gini = 0.0<br/>samples = 5<br/>value = [5, 0]>, fillcolor="#e58139"] ;
10 -> 11 ;
12 [label=<balance_ether &le; 0.001<br/>gini = 0.222<br/>samples = 63<br/>value = [8, 55]>, fillcolor="#56abe9"] ;
10 -> 12 ;
13 [label=<gini = 0.126<br/>samples = 59<br/>value = [4, 55]>, fillcolor="#47a4e7"] ;
12 -> 13 ;
14 [label=<gini = 0.0<br/>samples = 4<br/>value = [4, 0]>, fillcolor="#e58139"] ;
12 -> 14 ;
15 [label=<received &le; 0.001<br/>gini = 0.491<br/>samples = 3359<br/>value = [1909, 1450]>, fillcolor="#f9e1cf"] ;
1 -> 15 ;
16 [label=<balance_ether &le; 0.0<br/>gini = 0.458<br/>samples = 2035<br/>value = [724, 1311]>, fillcolor="#a6d3f3"] ;
15 -> 16 ;
17 [label=<n_contracts_sent &le; 0.001<br/>gini = 0.5<br/>samples = 1252<br/>value = [637, 615]>, fillcolor="#fefbf8"] ;
16 -> 17 ;
18 [label=<gini = 0.469<br/>samples = 925<br/>value = [578, 347]>, fillcolor="#f5cdb0"] ;
17 -> 18 ;
19 [label=<gini = 0.296<br/>samples = 327<br/>value = [59, 268]>, fillcolor="#65b3eb"] ;
17 -> 19 ;
20 [label=<n_contracts_sent &le; 0.0<br/>gini = 0.198<br/>samples = 783<br/>value = [87, 696]>, fillcolor="#52a9e8"] ;
16 -> 20 ;
21 [label=<gini = 0.499<br/>samples = 84<br/>value = [44, 40]>, fillcolor="#fdf4ed"] ;
20 -> 21 ;
22 [label=<gini = 0.115<br/>samples = 699<br/>value = [43, 656]>, fillcolor="#46a3e7"] ;
20 -> 22 ;
23 [label=<balance_ether &le; 0.0<br/>gini = 0.188<br/>samples = 1324<br/>value = [1185, 139]>, fillcolor="#e89050"] ;
15 -> 23 ;
24 [label=<sent &le; 0.002<br/>gini = 0.066<br/>samples = 1137<br/>value = [1098, 39]>, fillcolor="#e68540"] ;
23 -> 24 ;
25 [label=<gini = 0.02<br/>samples = 1065<br/>value = [1054, 11]>, fillcolor="#e5823b"] ;
24 -> 25 ;
26 [label=<gini = 0.475<br/>samples = 72<br/>value = [44, 28]>, fillcolor="#f6d1b7"] ;
24 -> 26 ;
27 [label=<total_transactions &le; 0.0<br/>gini = 0.498<br/>samples = 187<br/>value = [87, 100]>, fillcolor="#e5f2fc"] ;
23 -> 27 ;
28 [label=<gini = 0.046<br/>samples = 42<br/>value = [41, 1]>, fillcolor="#e6843e"] ;
27 -> 28 ;
29 [label=<gini = 0.433<br/>samples = 145<br/>value = [46, 99]>, fillcolor="#95cbf1"] ;
27 -> 29 ;
30 [label=<balance_ether &le; 0.0<br/>gini = 0.093<br/>samples = 14255<br/>value = [695, 13560]>, fillcolor="#43a2e6"] ;
0 -> 30 [labeldistance=2.5, labelangle=-45, headlabel="False"] ;
31 [label=<sent &le; 0.0<br/>gini = 0.344<br/>samples = 2100<br/>value = [463, 1637]>, fillcolor="#71b9ec"] ;
30 -> 31 ;
32 [label=<balance_ether &le; 0.0<br/>gini = 0.493<br/>samples = 542<br/>value = [240, 302]>, fillcolor="#d6ebfa"] ;
31 -> 32 ;
33 [label=<received &le; 0.015<br/>gini = 0.448<br/>samples = 269<br/>value = [178, 91]>, fillcolor="#f2c19e"] ;
32 -> 33 ;
34 [label=<gini = 0.276<br/>samples = 151<br/>value = [126, 25]>, fillcolor="#ea9a60"] ;
33 -> 34 ;
35 [label=<gini = 0.493<br/>samples = 118<br/>value = [52, 66]>, fillcolor="#d5eaf9"] ;
33 -> 35 ;
36 [label=<n_contracts_sent &le; 0.006<br/>gini = 0.351<br/>samples = 273<br/>value = [62, 211]>, fillcolor="#73baed"] ;
32 -> 36 ;
37 [label=<gini = 0.202<br/>samples = 184<br/>value = [21, 163]>, fillcolor="#53aae8"] ;
36 -> 37 ;
38 [label=<gini = 0.497<br/>samples = 89<br/>value = [41, 48]>, fillcolor="#e2f1fb"] ;
36 -> 38 ;
39 [label=<n_contracts_received &le; 0.0<br/>gini = 0.245<br/>samples = 1558<br/>value = [223, 1335]>, fillcolor="#5aade9"] ;
31 -> 39 ;
40 [label=<total_transactions &le; 0.001<br/>gini = 0.226<br/>samples = 1531<br/>value = [199, 1332]>, fillcolor="#57ace9"] ;
39 -> 40 ;
41 [label=<gini = 0.49<br/>samples = 112<br/>value = [48, 64]>, fillcolor="#cee6f8"] ;
40 -> 41 ;
42 [label=<gini = 0.19<br/>samples = 1419<br/>value = [151, 1268]>, fillcolor="#51a9e8"] ;
40 -> 42 ;
43 [label=<total_transactions &le; 0.006<br/>gini = 0.198<br/>samples = 27<br/>value = [24, 3]>, fillcolor="#e89152"] ;
39 -> 43 ;
44 [label=<gini = 0.0<br/>samples = 22<br/>value = [22, 0]>, fillcolor="#e58139"] ;
43 -> 44 ;
45 [label=<gini = 0.48<br/>samples = 5<br/>value = [2, 3]>, fillcolor="#bddef6"] ;
43 -> 45 ;
46 [label=<received &le; 0.0<br/>gini = 0.037<br/>samples = 12155<br/>value = [232, 11923]>, fillcolor="#3d9fe6"] ;
30 -> 46 ;
47 [label=<gini = 0.0<br/>samples = 8<br/>value = [8, 0]>, fillcolor="#e58139"] ;
46 -> 47 ;
48 [label=<total_transactions &le; 0.005<br/>gini = 0.036<br/>samples = 12147<br/>value = [224, 11923]>, fillcolor="#3d9fe5"] ;
46 -> 48 ;
49 [label=<n_contracts_sent &le; 0.033<br/>gini = 0.115<br/>samples = 2520<br/>value = [155, 2365]>, fillcolor="#46a3e7"] ;
48 -> 49 ;
50 [label=<gini = 0.104<br/>samples = 2503<br/>value = [138, 2365]>, fillcolor="#45a3e7"] ;
49 -> 50 ;
51 [label=<gini = 0.0<br/>samples = 17<br/>value = [17, 0]>, fillcolor="#e58139"] ;
49 -> 51 ;
52 [label=<n_contracts_received &le; 0.506<br/>gini = 0.014<br/>samples = 9627<br/>value = [69, 9558]>, fillcolor="#3a9ee5"] ;
48 -> 52 ;
53 [label=<gini = 0.014<br/>samples = 9626<br/>value = [68, 9558]>, fillcolor="#3a9ee5"] ;
52 -> 53 ;
54 [label=<gini = 0.0<br/>samples = 1<br/>value = [1, 0]>, fillcolor="#e58139"] ;
52 -> 54 ;
}