digraph Tree {
node [shape=box, style="filled, rounded", color="black", fontname=helvetica] ;
edge [fontname=helvetica] ;
0 [label=<sent &le; 0.0<br/>gini = 0.5<br/>samples = 66186<br/>value = [33093, 33093]>, fillcolor="#ffffff"] ;
1 [label=<received &le; 0.0<br/>gini = 0.498<br/>samples = 30903<br/>value = [16501, 14402]>, fillcolor="#fcefe6"] ;
0 -> 1 [labeldistance=2.5, labelangle=45, headlabel="True"] ;
2 [label=<total_transactions &le; 0.0<br/>gini = 0.499<br/>samples = 26571<br/>value = [13783, 12788]>, fillcolor="#fdf6f1"] ;
1 -> 2 ;
3 [label=<received &le; 0.0<br/>gini = 0.498<br/>samples = 25011<br/>value = [13239, 11772]>, fillcolor="#fcf1e9"] ;
2 -> 3 ;
4 [label=<balance_ether &le; 0.0<br/>gini = 0.498<br/>samples = 24844<br/>value = [13239, 11605]>, fillcolor="#fcefe7"] ;
3 -> 4 ;
5 [label=<gini = 0.497<br/>samples = 23915<br/>value = [12920, 10995]>, fillcolor="#fbece1"] ;
4 -> 5 ;
6 [label=<gini = 0.451<br/>samples = 929<br/>value = [319, 610]>, fillcolor="#a1d0f3"] ;
4 -> 6 ;
7 [label=<gini = 0.0<br/>samples = 167<br/>value = [0, 167]>, fillcolor="#399de5"] ;
3 -> 7 ;
8 [label=<total_transactions &le; 0.0<br/>gini = 0.454<br/>samples = 1560<br/>value = [544, 1016]>, fillcolor="#a3d1f3"] ;
2 -> 8 ;
9 [label=<received &le; 0.0<br/>gini = 0.405<br/>samples = 1415<br/>value = [399, 1016]>, fillcolor="#87c3ef"] ;
8 -> 9 ;
10 [label=<gini = 0.375<br/>samples = 1353<br/>value = [338, 1015]>, fillcolor="#7bbeee"] ;
9 -> 10 ;
11 [label=<gini = 0.032<br/>samples = 62<br/>value = [61, 1]>, fillcolor="#e5833c"] ;
9 -> 11 ;
12 [label=<gini = 0.0<br/>samples = 145<br/>value = [145, 0]>, fillcolor="#e58139"] ;
8 -> 12 ;
13 [label=<received &le; 0.0<br/>gini = 0.468<br/>samples = 4332<br/>value = [2718, 1614]>, fillcolor="#f4ccaf"] ;
1 -> 13 ;
14 [label=<total_transactions &le; 0.0<br/>gini = 0.228<br/>samples = 1051<br/>value = [913, 138]>, fillcolor="#e99457"] ;
13 -> 14 ;
15 [label=<balance_ether &le; 0.0<br/>gini = 0.275<br/>samples = 837<br/>value = [699, 138]>, fillcolor="#ea9a60"] ;
14 -> 15 ;
16 [label=<gini = 0.298<br/>samples = 757<br/>value = [619, 138]>, fillcolor="#eb9d65"] ;
15 -> 16 ;
17 [label=<gini = 0.0<br/>samples = 80<br/>value = [80, 0]>, fillcolor="#e58139"] ;
15 -> 17 ;
18 [label=<gini = 0.0<br/>samples = 214<br/>value = [214, 0]>, fillcolor="#e58139"] ;
14 -> 18 ;
19 [label=<received &le; 0.001<br/>gini = 0.495<br/>samples = 3281<br/>value = [1805, 1476]>, fillcolor="#fae8db"] ;
13 -> 19 ;
20 [label=<gini = 0.0<br/>samples = 176<br/>value = [0, 176]>, fillcolor="#399de5"] ;
19 -> 20 ;
21 [label=<received &le; 0.001<br/>gini = 0.487<br/>samples = 3105<br/>value = [1805, 1300]>, fillcolor="#f8dcc8"] ;
19 -> 21 ;
22 [label=<gini = 0.341<br/>samples = 669<br/>value = [523, 146]>, fillcolor="#eca470"] ;
21 -> 22 ;
23 [label=<gini = 0.499<br/>samples = 2436<br/>value = [1282, 1154]>, fillcolor="#fcf2eb"] ;
21 -> 23 ;
24 [label=<sent &le; 0.0<br/>gini = 0.498<br/>samples = 35283<br/>value = [16592, 18691]>, fillcolor="#e9f4fc"] ;
0 -> 24 [labeldistance=2.5, labelangle=-45, headlabel="False"] ;
25 [label=<gini = 0.0<br/>samples = 935<br/>value = [0, 935]>, fillcolor="#399de5"] ;
24 -> 25 ;
26 [label=<received &le; 0.0<br/>gini = 0.499<br/>samples = 34348<br/>value = [16592, 17756]>, fillcolor="#f2f9fd"] ;
24 -> 26 ;
27 [label=<received &le; 0.0<br/>gini = 0.497<br/>samples = 30420<br/>value = [14093, 16327]>, fillcolor="#e4f2fb"] ;
26 -> 27 ;
28 [label=<sent &le; 0.001<br/>gini = 0.498<br/>samples = 30085<br/>value = [14093, 15992]>, fillcolor="#e7f3fc"] ;
27 -> 28 ;
29 [label=<gini = 0.497<br/>samples = 29048<br/>value = [13407, 15641]>, fillcolor="#e3f1fb"] ;
28 -> 29 ;
30 [label=<gini = 0.448<br/>samples = 1037<br/>value = [686, 351]>, fillcolor="#f2c19e"] ;
28 -> 30 ;
31 [label=<gini = 0.0<br/>samples = 335<br/>value = [0, 335]>, fillcolor="#399de5"] ;
27 -> 31 ;
32 [label=<sent &le; 0.001<br/>gini = 0.463<br/>samples = 3928<br/>value = [2499, 1429]>, fillcolor="#f4c9aa"] ;
26 -> 32 ;
33 [label=<received &le; 0.001<br/>gini = 0.408<br/>samples = 3144<br/>value = [2245, 899]>, fillcolor="#efb388"] ;
32 -> 33 ;
34 [label=<gini = 0.308<br/>samples = 2429<br/>value = [1968, 461]>, fillcolor="#eb9f67"] ;
33 -> 34 ;
35 [label=<gini = 0.475<br/>samples = 715<br/>value = [277, 438]>, fillcolor="#b6dbf5"] ;
33 -> 35 ;
36 [label=<received &le; 0.001<br/>gini = 0.438<br/>samples = 784<br/>value = [254, 530]>, fillcolor="#98ccf1"] ;
32 -> 36 ;
37 [label=<gini = 0.21<br/>samples = 529<br/>value = [63, 466]>, fillcolor="#54aae9"] ;
36 -> 37 ;
38 [label=<gini = 0.376<br/>samples = 255<br/>value = [191, 64]>, fillcolor="#eeab7b"] ;
36 -> 38 ;
}